%YAML:1.0
---
opencv_ml_ann_mlp:
   format: 3
   layer_sizes: [ 144, 289, 10 ]
   activation_function: SIGMOID_SYM
   f_param1: 0.66666666666666663
   f_param2: 1.7159
   min_val: -0.94999999999999996
   max_val: 0.94999999999999996
   min_val1: -0.97999999999999998
   max_val1: 0.97999999999999998
   training_params:
      train_method: BACKPROP
      dw_scale: 0.001
      moment_scale: 0.
      term_criteria:
         epsilon: 0.0001
         iterations: 300
   input_scale:
      - 8.2843022780257876
      - -4.8448014046140129
      - 4.7799055202210239
      - -2.3396908844583026
      - 4.8627083313462647
      - -1.0212432780775749
      - 16.355107030163172
      - -0.25594078413638827
      - 19.993999546341826
      - -0.31820151129495255
      - 11.651914468168822
      - -0.49813866338288271
      - 7.194525099140761
      - -0.54971259165281261
      - 6.444793304689127
      - -0.58347899035304607
      - 4.517697858369413
      - -1.6941994142206753
      - 8.5719557504185104
      - -4.6583707245836816
      - 5.210303052289345
      - -1.7621461711365864
      - 7.139996165574316
      - -0.63770393867246755
      - 12.9554255045418
      - -0.49270567321674719
      - 8.1116281498961076
      - -0.69133577123394085
      - 6.4986260667154596
      - -0.73139748922003556
      - 5.3172207370832494
      - -0.78748696956193776
      - 4.7076098468298042
      - -1.1304979757361044
      - 7.1925763733062826
      - -3.6622057199059794
      - 7.2792065643723207
      - -3.7124453200797407
      - 4.8297399877999059
      - -0.95179078711710319
      - 5.9691761790407334
      - -0.6779895651385337
      - 7.459683121043768
      - -0.67173568639415826
      - 7.3042545709150453
      - -0.62802350158448317
      - 9.0305815334035486
      - -0.57775216700463217
      - 4.8392298194740224
      - -0.88806339144722002
      - 5.0011600008656005
      - -1.723225236676363
      - 7.8021179822928657
      - -4.0690081046632987
      - 4.3666511877141492
      - -1.8587394920873521
      - 6.9751434279608171
      - -0.59490806479188219
      - 7.3262569908948647
      - -0.53076368622589265
      - 8.7514104870434242
      - -0.49275571158389297
      - 21.542433064945865
      - -0.39422933055765863
      - 17.118264985818829
      - -0.28430722093053656
      - 4.3437805035611863
      - -1.0787296247523332
      - 4.2246339689614594
      - -1.7879993106629226
      - 6.8227336115346642
      - -3.8021002253842551
      - 6.2535898700957739
      - -2.4171775706066114
      - 10.37106179678846
      - -5.0048600102963112
      - 6.6008419426913756
      - -2.7865293385844541
      - 6.3628360805260087
      - -0.94308088988934669
      - 6.8505683824252825
      - -0.82466939922160098
      - 5.1742243805921655
      - -1.312872668060616
      - 5.2779488184433072
      - -1.323649329840801
      - 6.4796489730954585
      - -0.83320203192265774
      - 6.018673123414839
      - -0.96567286824520115
      - 8.2256700562616167
      - -3.3391276423975125
      - 6.9372969684326877
      - -2.4288914671204545
      - 5.9616497864044051
      - -1.3956000698000492
      - 6.6344886709624555
      - -1.0695047136636209
      - 5.4416244193576251
      - -1.5478279979797023
      - 5.9381417219623591
      - -1.8521168477577454
      - 5.5474657940839469
      - -1.5431267910384523
      - 5.7381766744790852
      - -1.3252775521391984
      - 5.748001706715133
      - -1.5920324474708667
      - 6.0740477519293155
      - -2.2683017109031614
      - 6.164352861890829
      - -1.9637228325589902
      - 5.8042948756543327
      - -1.5493254508422158
      - 6.1582471676650892
      - -1.3004828046015082
      - 5.6938529050658628
      - -1.3392575176328225
      - 6.4081400392782326
      - -1.5557347145647631
      - 5.6945100623137623
      - -1.5517870939221547
      - 6.1957349782483444
      - -1.8349834165393297
      - 6.5707436220948354
      - -2.2538693451918816
      - 4.9200673284380105
      - -1.3575300253668432
      - 5.8604475875858197
      - -1.2492158570147329
      - 5.0718652392656818
      - -0.99291632956022702
      - 6.3589762627887678
      - -0.84647851931662943
      - 6.8419973447687825
      - -0.96203477821732886
      - 5.6073154740693365
      - -1.312950636115132
      - 6.9941394991832233
      - -2.9060591237990065
      - 6.9813281306578689
      - -2.9336405246398347
      - 6.5676610227498902
      - -2.4778484861064189
      - 6.0959808348445135
      - -1.1595172080460758
      - 6.5015814178735738
      - -2.3305557796724075
      - 9.3683949236576094
      - -4.2131259326771886
      - 6.6480660224018129
      - -2.6418126453287458
      - 5.7734462029622913
      - -1.8198143655849193
      - 5.9076405983396238
      - -1.2132935024341367
      - 5.7013058604249087
      - -1.2463793989393934
      - 5.6756444441767302
      - -1.026075139477221
      - 6.9823698780013981
      - -1.0528864786527792
      - 6.5930967751370133
      - -2.1199004666413432
      - 6.0582030904928139
      - -1.6886730465821558
      - 6.16347694453495
      - -1.5643861398996686
      - 7.2224078797502136
      - -2.3142988178068435
      - 6.0426964268214629
      - -2.2036620030715635
      - 7.7463709494042323
      - -2.7774954923838275
      - 6.0053776601482181
      - -1.4418815582954654
      - 6.1287531665944446
      - -1.332090164828857
      - 6.5542696430085012
      - -1.6506015922282513
      - 7.9047976479305735
      - -2.8791324598262773
      - 6.4475476743256559
      - -2.0011725400985751
      - 6.1020757732332838
      - -1.2836638873027799
      - 5.8648127849271434
      - -1.3282693024653041
      - 6.0553406883489806
      - -2.3203841574213624
      - 8.0972670870717955
      - -3.1942083692842438
      - 6.2551386965628142
      - -1.410101207781143
      - 6.5217421934532087
      - -1.3090135055314354
      - 7.1682467039752025
      - -1.899885162848667
      - 5.7111799831105543
      - -1.414094498813133
      - 5.1467859886289151
      - -1.2121840407376547
      - 6.4042252303758032
      - -0.87926683467768596
      - 7.7209755039350423
      - -0.73239062520367204
      - 4.7258217319563949
      - -1.4676139798131769
      - 9.7541499174879274
      - -4.8389601120111703
      - 6.2156744628019602
      - -2.6246696305227384
      - 6.0140124964590376
      - -1.5625023623990291
      - 6.7135356415969962
      - -0.97947722465362985
      - 12.321811681689253
      - -0.42061025277198244
      - 6.3048897863773794
      - -0.78776351543545953
      - 4.9752310927927388
      - -1.8546214944767867
      - 6.1863223320024572
      - -3.1790943556529654
      - 6.4700604107740372
      - -3.6904051351812184
      - 4.8017127083528015
      - -1.0324741855768684
      - 6.9115501015889897
      - -0.48339364272810881
      - 13.29442763209541
      - -0.50517026809630317
      - 17.594614988938236
      - -0.53657613407209459
      - 8.2356169500361442
      - -0.7294425444386633
      - 7.556761872723623
      - -0.68307822597962653
      - 5.0184153957283142
      - -1.0192235686411335
      - 5.6725805846636517
      - -2.4118471555849705
      - 6.7317518555841822
      - -3.9560083486663289
      - 4.5495450118723744
      - -1.7842494661262824
      - 6.0311661549740778
      - -0.64967549345962439
      - 8.5282125290366277
      - -0.61634716715862881
      - 7.4225468910794223
      - -0.62908407275366407
      - 6.9020922949704646
      - -0.73351622092524682
      - 7.8392391874151253
      - -0.68604209764960911
      - 6.2818630209079469
      - -0.7011491358726768
      - 4.3002411134651437
      - -1.3863470105434439
      - 6.8352325512752401
      - -4.1340595080833005
      - 5.635904230925207
      - -2.8007470207719503
      - 5.9615896640917434
      - -0.74855676618700884
      - 9.8880731048670025
      - -0.55185533577144708
      - 8.855297338310324
      - -0.68499573369182443
      - 14.507868801896668
      - -0.58167220563348732
      - 10.641496705901218
      - -0.53801705839338332
      - 12.162498356266029
      - -0.34816632912916579
      - 5.8092633348800078
      - -0.69815856585212621
      - 5.1818941387216917
      - -3.0572626299627657
      - 6.3255868227965601
      - -3.6227302636504986
      - 4.0750333593648156
      - -1.2928956362618962
      - 7.7143892689800024
      - -0.51216788704793625
      - 18.028660527719456
      - -0.34982174429879348
   output_scale:
      - 0.52631578947368418
      - 0.49999999999999994
      - 0.52631578947368418
      - 0.49999999999999994
      - 0.52631578947368418
      - 0.49999999999999994
      - 0.52631578947368418
      - 0.49999999999999994
      - 0.52631578947368418
      - 0.49999999999999994
      - 0.52631578947368418
      - 0.49999999999999994
      - 0.52631578947368418
      - 0.49999999999999994
      - 0.52631578947368418
      - 0.49999999999999994
      - 0.52631578947368418
      - 0.49999999999999994
      - 0.52631578947368418
      - 0.49999999999999994
   inv_output_scale:
      - 1.8999999999999999
      - -0.94999999999999996
      - 1.8999999999999999
      - -0.94999999999999996
      - 1.8999999999999999
      - -0.94999999999999996
      - 1.8999999999999999
      - -0.94999999999999996
      - 1.8999999999999999
      - -0.94999999999999996
      - 1.8999999999999999
      - -0.94999999999999996
      - 1.8999999999999999
      - -0.94999999999999996
      - 1.8999999999999999
      - -0.94999999999999996
      - 1.8999999999999999
      - -0.94999999999999996
      - 1.8999999999999999
      - -0.94999999999999996
   weights:
      -
         - -0.059551676328627068
         - -0.0015314333531536437
         - -0.0041083971465122465
         - 0.0041312138915697476
         - -0.012555962391682298
         - -0.0012501271398832425
         - -0.018639464989694585
         - 0.020676166148108698
         - -0.070551008481699554
         - -0.11869793120583939
         - -0.0083360801551976334
         - -0.0090144793087575288
         - -0.026000580525314256
         - -0.036724250632143816
         - 0.0046835394705563964
         - 0.078270803668639921
         - 0.013911708330052964
         - -0.049315987411143715
         - 0.003312988861902749
         - 0.010011874335356146
         - -0.013201761074966465
         - 0.013054401310363914
         - 0.011504870554601724
         - -0.013964414182541057
         - -0.0058314892300337009
         - -0.04165874422932541
         - -0.014774538407373475
         - 0.014440647022277818
         - -0.0025050898299978307
         - -0.041487954582405256
         - 0.024224674668177869
         - -0.030016787151636481
         - 0.019113580448181275
         - 0.0053706033238816253
         - 0.010080936174957188
         - 0.037225299160381475
         - -0.0039224143753917272
         - 0.051301107817678666
         - -0.0011883095968032724
         - 0.0040611569747740026
         - -0.023321947141726352
         - 0.029170296386678698
         - -0.013990741787408731
         - 0.014049081466821847
         - -0.012249736532874721
         - -0.00024163451810329544
         - -0.0078535146515867574
         - -0.0084224585512525981
         - 0.025858786856289891
         - -0.004643155467567113
         - -0.026476144730903255
         - -0.010336197785267317
         - -0.0098922754036524282
         - 0.05809934885400405
         - 0.0016690875588951694
         - 0.019515157242247175
         - 0.0026959847884920059
         - 0.046590493915068816
         - 0.019242008395932205
         - 0.035463456473682653
         - -0.025614128483500621
         - 0.0027896995668903026
         - 0.030147959081476113
         - -0.017350197025590593
         - -0.038720878764375591
         - -0.03315022539432038
         - 0.015265479527485769
         - -0.0017542983836743836
         - 0.01315826119511268
         - -0.0052018008927759559
         - -0.0049989044811069461
         - 0.010772302224373025
         - -0.012508550198823704
         - -0.040161272414561119
         - -0.021923813008336897
         - -0.0094908443541920576
         - 0.037012602877288553
         - 0.0062060940219618296
         - -0.027111376169787701
         - -0.02320806895054266
         - 0.013205703209233574
         - -0.029854030340093356
         - -2.3502092290002005e-05
         - 0.059685858145201699
         - -0.045834345744902784
         - 0.012383705570283062
         - -0.01704863308568226
         - -0.098970452960254182
         - -0.0070747298963435507
         - -0.027674198918018599
         - -0.027964797037961786
         - 0.019460459510677593
         - -0.00074247538052465544
         - 0.015908697272536146
         - 0.015807177949588649
         - 0.0059519176414646038
         - 0.01052605382470518
         - 0.0046925116585399907
         - 0.0027355180008760364
         - -0.0066541776292352115
         - 0.0042644797305569689
         - 0.0038249399491899856
         - -0.00060464287942955247
         - -0.0035719493804310747
         - -0.0077600198522641195
         - -0.026423729085141161
         - -0.021797211429070897
         - -0.010824474256452074
         - 0.02812831427940345
         - -4.1327894399404872e-05
         - 0.010428749338457418
         - -0.018362431225527581
         - -0.0047990425714933699
         - 0.012124026708398869
         - 0.0030954258150753303
         - 0.010261562090548609
         - -0.018389450040955574
         - -0.025081728670939329
         - -0.026529902919374956
         - 0.063601548701407426
         - 0.014679603935295785
         - 0.077785426467569918
         - -0.028438715776366894
         - 0.047526810910747695
         - -0.0011879853004268242
         - 0.0007539570316725606
         - -0.0071189722658824119
         - 0.022494637328284755
         - -0.034450132413685858
         - 0.034109308786107892
         - -0.083296633315348381
         - -0.0058207736842016845
         - -0.020005366574600118
         - -0.006011028210365167
         - 0.023880939606638788
         - -0.018770897606171594
         - 0.01880510793030998
         - -0.022336092325238817
         - 0.019528492518818517
         - 0.030211232281779576
         - -0.0028923827690547723
         - 0.031904028569826853
         - -0.02180799800495873
         - -0.0032088177817126196
         - 0.025803398268002632
         - -0.0082123249865383215
         - -0.024635846981510615
         - 0.0090574092970357907
         - -0.077615929333974099
         - 0.034453853931038246
         - 0.052455272495279807
         - -0.010077484553581354
         - -0.032893052405794876
         - -0.034155838382859807
         - -0.016759616133906551
         - -0.039999101969867598
         - 0.10453953900859246
         - 0.0081536356783507291
         - -0.0020919466307029945
         - -0.01486892518326061
         - 0.00013394385753729785
         - 0.015470703880763843
         - 0.0039106499983716644
         - 0.0073403931017648446
         - -0.010223340593480113
         - 0.0043732267183605065
         - 0.013995966704443719
         - -0.020270697583076265
         - -0.012919671146066113
         - 0.018270420156612871
         - -0.015513665209467498
         - -0.010657870309395525
         - -0.08487128260051803
         - 0.02776966783208544
         - -0.050416533356020393
         - 0.0031963276799363482
         - -0.030669297778154709
         - 0.0006254160691980627
         - -0.0052472881338645376
         - -0.020596579549256387
         - -0.0015182038777495554
         - -0.0209082544882166
         - -0.021696982749637335
         - 0.0050814615180886829
         - -0.083915046930688075
         - 0.025581816223248777
         - -0.050861668999628448
         - 0.028268763463729748
         - -0.025186913005593246
         - 0.039597653137736992
         - -0.0031942055029597024
         - 0.0049825592273659586
         - -0.10735744397410377
         - -0.022026097224095317
         - 0.0030366271861452382
         - -0.0034711080071438637
         - 0.01786747047021027
         - 0.072291178343837553
         - 0.039655706159303881
         - -0.070620831451509533
         - -0.017713887287575295
         - -0.0088412403657327446
         - -0.0043984478269020006
         - -0.054940746257965238
         - -0.027323962860828003
         - 0.02988085379527888
         - -0.016669894096961568
         - -0.016810718377463486
         - 0.015601387483323631
         - 0.032557633163781671
         - 0.0090143816139065368
         - 0.087804992292665057
         - -0.0056926567585352224
         - 0.0016556938807737987
         - 0.066437625167664646
         - -0.0085047950857134753
         - 0.024524232146749134
         - -0.038053219903099914
         - -0.0081725808221249537
         - 0.043609927462676945
         - -0.026235261736904162
         - -0.064888958959258169
         - 0.0055997898133580519
         - 0.02708172363695668
         - -0.0036402893982162023
         - 0.013326413489774157
         - -0.0024164680518006607
         - 0.015755201340035826
         - 0.045479474404754389
         - -0.050603630984268851
         - -0.012497632722505604
         - -0.0059283758369986089
         - 0.0075725965378643251
         - -0.018052977898286044
         - -0.020172049065400471
         - -0.0059037760448140972
         - -0.018285261782740422
         - -0.0094464956506349288
         - -0.034807441065809637
         - 0.0010137569507727964
         - 0.068954086452279129
         - -0.018070722160807275
         - 0.014258333843282558
         - 0.027716268530815474
         - 0.064569957005100556
         - 0.14381326277661047
         - -0.0018230131368707145
         - 0.0013324335418385411
         - 0.0070009775356878372
         - -0.002548293009362127
         - 0.0099849212647029374
         - -0.00060886273582958536
         - -0.0038493791817429089
         - 0.016049545989579202
         - -0.024105473659854965
         - -0.10023548697625734
         - -0.016029318388499726
         - -0.068435520681737874
         - -0.02757265062016338
         - 0.013221991197395562
         - -0.0011704196004256684
         - -0.012016189853050679
         - 0.016269205400875956
         - 0.0033081177852310999
         - 0.030606184831468233
         - 0.02024803858679667
         - 0.00061251549452889787
         - -0.0025633997699350164
         - 0.067866961331615447
         - -0.0084461920278309389
         - 0.011480179741259167
         - 0.0065959621806251541
         - 0.00045335349196596198
         - 0.0048568267939943736
         - -0.0014486452749645808
         - -0.0064987221886191569
         - -0.023882519133101628
         - -0.060979275466424288
         - 0.0066847394921977681
         - -0.0030488310892563741
         - -0.024689787701086173
         - 0.0088072749322990838
         - -0.018630763350897035
         - 0.021332077873274308
         - 0.0024734201291124352
         - 0.003255991177759948
         - 0.0025070721128292671
         - 0.00061790595233455114
         - -0.027429971786119781
         - 0.025750410438506455
         - -0.0024627085841531188
         - 0.022801703816650226
         - 0.0061692275057732776
         - 0.023857883809041299
         - -0.017767554409303405
         - 0.039785639315735005
         - 0.012889875206109803
         - 0.0070390973520776433
         - -0.031830156475629465
         - 0.035301951584632348
         - 0.031119716987366191
         - 0.019481020204707013
         - -0.027043098979864861
         - -0.019218208719708002
         - 0.015460516646781171
         - -0.016589998583305971
         - 0.035603893742191278
         - -0.0086735392602939609
         - -0.03817596591411173
         - -0.0027858591618566352
         - 0.018820354592300921
         - -0.059156095029400432
         - -0.039417373820120956
         - -0.0018484404486382882
         - -0.004087569357757794
         - 0.0090152694667023706
         - 0.0065598819181579291
         - -0.02770329611322191
         - 0.02436715031602233
         - -0.058061755617121756
         - 0.011222164363429855
         - 0.0027139745948898146
         - 0.00056259876958039158
         - 0.028872438631585982
         - -0.0079421813551195704
         - -0.015080396085016967
         - 0.023188154419167332
         - -0.011090443135004516
         - -0.0025799469840933169
         - 0.029389848561108732
         - 0.017302052517385404
         - -0.016430704042517508
         - 0.0039811073794315185
         - -0.011153651908466717
         - 0.068764114152416275
         - -0.0039951107177232572
         - 0.0073625317416511002
         - -0.0099557370573490102
         - 0.0090402715075224623
         - 0.027135663753543829
         - -0.00075189233003680387
         - 0.03625624874771665
         - 0.028046509314025431
         - -0.0014269001817053843
         - -0.019505734780227459
         - 0.011819303477937682
         - 0.013284289109870121
         - 0.013162073797325612
         - 0.03769754072968895
         - -0.0011786190479251496
         - -0.017416056243249368
         - -0.009484380849626467
         - 0.062464314240317495
         - -0.025504323148143427
         - -0.016450211322406514
         - 0.0038668272579348148
         - -0.047143431704785424
         - 0.026093175775085218
         - 0.025098530901597107
         - -0.0009108086024700434
         - 0.053255332603899128
         - 0.030150301399854477
         - 0.01131112606057114
         - 0.012308656201197355
         - 0.016217590873012815
         - 0.0123237013050435
         - -0.011713987432117354
         - 0.0025074631631135319
         - 0.021154098027407534
         - -0.023697109492649752
         - 0.025677178515415906
         - 0.12347878370609382
         - -0.022823632479443707
         - 0.011305071695124158
         - 0.0052428362258159743
         - 0.0079723197863143611
         - 0.032534951792774464
         - -0.0043284999920476163
         - -0.024301685601771213
         - 0.098711939895658574
         - 0.023680934890815752
         - -0.0024255334468655469
         - -0.0047973881526315728
         - -0.04648734583662259
         - 0.0091237209149339984
         - -0.034734099281931122
         - -0.01147341905144816
         - 0.0052106016496482194
         - -0.00078306017946089333
         - 0.01391146091538218
         - -0.002437212077117766
         - -0.050730151463391902
         - 0.0024410177957100488
         - 0.02673863896215814
         - -0.033729434611971774
         - -0.027464220002252359
         - 0.0035831146949689583
         - 0.026459798636301074
         - -0.033225601832801197
         - -0.019071506428147516
         - 0.026542509057283403
         - -0.0062135531899847182
         - -0.11410643759783168
         - 0.025305120119424332
         - -0.020133698337077344
         - 0.073232565770892405
         - -0.012256280630288503
         - -0.0011313676672338462
         - -0.12428205093516334
         - 0.11084941299143444
         - -0.0061321855403966511
         - -0.0035234065207337636
         - -0.057910774087158771
         - 0.0038005193626320698
         - -0.15334731983759017
         - -0.013786732519608299
         - 0.00076001210594511413
         - -0.02880533922407252
         - -0.18452491187451533
         - 0.030419846159687642
         - -0.015541275092077634
         - -0.025419435407104046
         - 0.012332001851437152
         - 0.017265773209630592
         - 0.0024528690401595232
         - 0.00027752054744083009
         - -0.016321766577891472
         - -0.015110584198803316
         - 0.0064838482210343301
         - -0.0044115188016302246
         - 0.026147805816947166
         - 0.022478250386228849
         - 0.020043723508751846
         - 0.032063041087809697
         - -0.012906042122055669
         - -0.01359408349021823
         - -0.00034654617965343036
         - 0.035913869723089492
         - 0.048801445422086913
         - -0.056183643574619718
         - 0.0004282761928059683
         - -0.021997901845126538
         - 0.0012298337986544191
         - 0.03812555017484584
         - -0.0071616697354365752
         - -0.011139134159922731
         - 0.010011082259276168
         - 0.0049228108363952045
         - 0.018255303864315894
         - 0.020032990888713138
         - -0.00025992055509370979
         - 0.001985618389665606
         - 0.065310029219805887
         - 0.00093335026377054718
         - -0.0027611125826827801
         - -0.0093822893773573678
         - -0.0010281124562746015
         - 0.0021598282141182985
         - -0.058026587020531241
         - 0.0075089257394537244
         - -0.042371340131394722
         - -0.04363481785209123
         - -0.013609161107778874
         - -0.016906271893230785
         - -0.0012513517952308624
         - -0.016955522716187804
         - -0.0061556953523589017
         - 0.0030292939872342975
         - -0.015315118290767579
         - -0.0015218990066211107
         - 0.035074009902089941
         - -0.028397442252145903
         - -0.0029998213609183245
         - 0.0045849181785524926
         - 0.021914779463563072
         - 0.036670515226552639
         - 0.054432771761840297
         - -0.067422636458510807
         - 0.018956284942114293
         - -0.0098718005608260904
         - -0.011136151738795468
         - -0.010998617181111277
         - 0.00061668315229659399
         - 0.016501010120331498
         - -0.0021383991441549862
         - -0.043232495085683643
         - 0.0036474220782079484
         - 0.051300178299395961
         - 0.054051144183092328
         - -0.010608645301654228
         - 0.083006043947258509
         - 0.019561677074470343
         - -0.001483127750048076
         - -0.0045750020636833241
         - -0.032462207444573149
         - -0.0080563247433346717
         - -0.0028466706190428022
         - -0.019352945340771428
         - -0.020365320624455893
         - -0.021269543808696514
         - 0.061776880367459694
         - -0.019838566513815301
         - -0.0094626612596531538
         - -0.0017654777753609214
         - -0.010130023190411343
         - -0.02200468754855861
         - -0.028297109878841264
         - 0.010724628176729941
         - -0.013412500873471955
         - 0.042506553505104058
         - -0.028250025850872881
         - 0.001652533678213624
         - -0.0385482929813009
         - 0.00034991819506606075
         - 0.01838340672386916
         - 0.012451341290421879
         - -0.012001239917865265
         - -0.025550972841185262
         - -0.024049309316172392
         - -0.017167774216411601
         - 0.013887176666051956
         - -0.04262039524604392
         - 0.0052070115397257659
         - 0.020983054634540307
         - -0.013024014687683853
         - -0.0086891153320043674
         - -0.010011417039211582
         - -0.018889931518828937
         - -0.0020100415339572722
         - 0.0094616029387625498
         - -0.031476360497492563
         - 0.0033546634370853808
         - -0.033438070662743208
         - -0.11015537627284541
         - 0.052977840394059658
         - -0.031420857751340556
         - -0.015583236223316969
         - -0.014809109104486099
         - 0.043032043280635639
         - -0.067169870774124715
         - -0.036389362140250049
         - -0.0074724221342361528
         - -0.035164134791594227
         - -0.0076826811698317158
         - -0.048778526618271638
         - 0.023554396131032194
         - -0.012047932809078248
         - -0.15849833908494493
         - 0.015299446694476094
         - 0.0068311117674687083
         - 0.0074577687895598047
         - -0.0022073942796960117
         - 0.065687107200475783
         - 0.035921106241390138
         - -0.0055427327632579723
         - 0.0076669972445240764
         - 0.012252644497909956
         - -0.00071526697413204911
         - -0.013364455453894815
         - 0.0074458240805366704
         - 0.0021092918856430009
         - 0.00221589573342374
         - -0.0019477845439118148
         - -0.016907983181906651
         - -0.020993301312991451
         - -0.0091144566582957425
         - -0.035825324185720105
         - 0.062401553821388074
         - -0.0015970751612809726
         - 0.0091088862341782394
         - 0.013197138346075695
         - 0.025818838035885663
         - 0.0068268643518335365
         - 0.0066735082550144938
         - 0.00011519401796971553
         - 0.0065610931884672293
         - 0.023270353498883563
         - -0.025092656579479181
         - -0.040734488350039601
         - -0.00076762295669541422
         - 0.0068540899481441897
         - -0.01269343116065072
         - 0.027964993937048065
         - -0.0078728421965571643
         - 0.05838896567725585
         - -0.013204707577139992
         - 0.12303770269454392
         - 0.089387121579262818
         - 0.0036687977143201617
         - 0.024885628956005362
         - 0.096571456849736559
         - 0.077598252311379304
         - 0.0049413973346391481
         - -0.042277145432957311
         - -0.0080358807153808835
         - 0.092749745320388821
         - 0.0027631875623993106
         - 0.014640441013241105
         - -0.006800076330190699
         - -0.016990042229278045
         - 0.057173908367582425
         - 0.014299330138752224
         - 0.019281037502856809
         - 0.008833785352064449
         - -0.0055833364270331818
         - -0.015974692311927753
         - 0.0037550016198694769
         - 0.032705977291094313
         - -0.0042859280708773166
         - 0.024240203635720586
         - -0.019489338252995651
         - 0.00989445369933129
         - 0.007157379116266533
         - -0.067038934124743793
         - -0.0089068251942532265
         - -0.064373801744827666
         - 0.020492416856224424
         - -0.01745500063398359
         - 0.010414604527582699
         - -0.027073672683007911
         - 0.0088640711922697967
         - -0.014876695428450307
         - 0.022157302982066512
         - 0.0069802281380403784
         - 0.017464982866319579
         - 0.018016110829230048
         - -0.0065374483704533715
         - -0.028392828855711622
         - 0.027808285369489608
         - 0.0041347053407493704
         - 0.0017509557843319011
         - -0.1122510655979324
         - 0.0056210366605199983
         - -0.041935151973624941
         - -0.010611736615574645
         - -0.1602111308646457
         - -0.015755273148353129
         - -0.01848216824738853
         - 0.011530592521225078
         - 0.0058286440842473964
         - -0.0084886049356232181
         - 0.030834369920367154
         - 0.073160728587553736
         - -0.0031874198654127783
         - -0.016071626615641113
         - -0.024814425867247969
         - 0.01100262987537797
         - 0.0064611613743500631
         - -0.014432488938657685
         - -0.026321111478627524
         - 0.028181725926561711
         - 0.022063462066254626
         - 0.005329140529617471
         - -0.0078316877863232517
         - 0.020792241460813543
         - 0.0073202748657987485
         - 0.00070813564006497079
         - 0.029261049541196158
         - -0.034730345001437429
         - 0.03261780098291673
         - -0.03648427739294878
         - -0.032520712473110454
         - 0.11001636816219365
         - 0.0048246099668928294
         - -0.03026314593063922
         - -0.028665891683210168
         - -0.0061287186529653381
         - 0.038187751020217008
         - 0.028148528893446392
         - -0.013442906845331627
         - 0.00013707982142566302
         - -0.020632862156964128
         - 0.0055775346418490222
         - -0.0099321156517829887
         - -0.013395043740989133
         - 0.010215867098872249
         - 0.0068243210149482366
         - -0.016713388733684536
         - 0.0096702885564071729
         - 0.0085267310561376822
         - -0.033155352819083064
         - -0.018752557505677166
         - 0.036778285306584092
         - 0.0465483847340942
         - -0.041807802517569076
         - -0.011934675038806032
         - 0.0077501138110812147
         - -0.029188805446610493
         - -0.030552344024614975
         - -0.0021498125837072831
         - 0.0040630015543457205
         - -0.043343567774376229
         - -0.00936723621462302
         - 0.015682284487228415
         - 0.0091485310374713538
         - 0.070689228105968907
         - 0.035227459809820304
         - -0.073914382092567857
         - -0.064875149250563507
         - -0.10834117376537025
         - 0.0025540720396835673
         - -0.093173860649145374
         - -0.023823588446964146
         - -0.093862212594156669
         - 0.0024129465438502634
         - -0.01920908740688582
         - 0.0072447619096056605
         - -0.07619475969553155
         - 0.058513405420369549
         - 0.018001357108902896
         - 0.039490311379142246
         - 0.040762750967610097
         - -0.012001634205564694
         - 0.028529193922513151
         - -0.025127111116387765
         - 0.012411611638244516
         - -0.0026168997727789248
         - -0.010031733170287776
         - -0.0043917104289280884
         - 0.024049827101477853
         - 0.030645509225960512
         - 0.019010326594351781
         - -0.025503669023432061
         - -0.020704328101610932
         - -0.035847871005701311
         - -0.016517782595068631
         - 0.066544377129674523
         - 0.038826670506341122
         - -0.039150359731190243
         - 0.024035137395493907
         - 0.064988786691410644
         - 0.017221924643685774
         - 0.022771000588572007
         - -0.029099642635593916
         - -0.086282686009341858
         - -0.0017575749618209901
         - 0.013498848644768347
         - -0.14761878189918357
         - -0.0040376631770344534
         - -0.0034955858014318517
         - -0.012883387447266848
         - 0.042704084040052999
         - 0.0020928364649620782
         - 0.0090616283082363483
         - -0.033948746785416775
         - 0.021964690391304931
         - 0.010979856832561252
         - -0.033341540792399385
         - 0.017114996644897032
         - -0.012787396479255322
         - 0.041171322417628518
         - -0.015576806550648288
         - 0.013929321052692092
         - -0.0069832727319189573
         - 0.017162898099244161
         - -0.019080486923225653
         - -0.017213445158644224
         - 0.025972401906966376
         - -0.0023837446894474489
         - 0.045499868751868053
         - 0.019747503386731903
         - 0.0044194050859786638
         - 0.15691640205355226
         - -0.011885522287020009
         - 0.08267127793804438
         - 0.028925674950432155
         - -0.061074769651176294
         - -0.018971857386649554
         - 0.015080442796655151
         - 0.026558181296235894
         - 0.032033301416886484
         - 0.029813075220370661
         - -0.0023698840058967011
         - 0.0010249704347154579
         - -0.040473750289000153
         - -0.030212180607099792
         - -0.027268262378749741
         - 0.084953531174342706
         - -0.01210364573707115
         - 0.12319316884338243
         - -0.0012122859379699307
         - 0.094397766552155343
         - 0.0059389660371976663
         - -0.03446906750688452
         - 0.019713611280131264
         - 0.029824688129459761
         - -0.0094950467635897227
         - -0.06313387046891708
         - 0.0055158022410915861
         - -0.02603523474284393
         - -0.018367365624954637
         - 0.0094006269379243723
         - -0.048807020601147326
         - 0.012411957012495513
         - -0.021681781040682635
         - -0.021219391933014319
         - 0.044108429417897908
         - -0.041517028852499714
         - 0.08200105249403801
         - 0.021679098739909846
         - 0.015267557781177794
         - 0.0075064625058823171
         - 0.0085107322380619452
         - 0.017789100945895621
         - 0.0067473251594919216
         - -0.0013323554340203567
         - -0.063701528425980744
         - 0.035511401669179633
         - 0.022014781775679226
         - -0.015957431776698849
         - -0.032271002996217442
         - -0.012146018189972161
         - 0.0099133158307725053
         - 0.011648687617573265
         - -0.02361238111820841
         - -0.0057174120088545671
         - 0.05175212524783767
         - 0.018408295465486155
         - -0.010935374541693504
         - 0.063944944599566303
         - -0.0011029319477500398
         - 0.0016252175058638668
         - -0.077105157216624309
         - -0.11857665390557268
         - 0.084754980094107424
         - 0.012060958083616593
         - 0.0028017130671548784
         - 0.034034386968576684
         - -0.0042992461565637425
         - -0.012740352795758992
         - -0.0037588468164082597
         - -0.0097929066059770087
         - 0.023119439922196141
         - 0.17541018569175346
         - 0.0053837621721240497
         - 0.018376923922264792
         - 0.062848893754958737
         - 0.010983590193615361
         - -0.017475170729176648
         - 0.014297941179278521
         - 0.014690464059692165
         - -0.022568590410361005
         - -0.093934924372655382
         - -0.0044315782950251062
         - 0.0116424964007517
         - 0.020182636822758206
         - -0.063170928210114996
         - -0.0046346026317182678
         - 0.01692606427610065
         - -0.0017865886551781159
         - -0.018596066208022958
         - -0.051477130252038608
         - -0.023356960497886228
         - 0.026642544536414559
         - -0.014547709048314131
         - 0.0071080614001659877
         - 0.055373256883854825
         - -0.0087906843067994019
         - 0.028608757191598572
         - 0.00078509145194786967
         - 0.015998181007310697
         - 0.0041517950758087653
         - 0.015146976557290368
         - -0.00046691013439842535
         - 0.0040677280282826033
         - 0.014117576402094604
         - 0.010835208190984073
         - -0.1155535509907894
         - 0.0045069106878830641
         - 0.013319558992888956
         - -0.014808140790028349
         - 0.041743062579174837
         - -0.0067828135115766287
         - 0.006810474068481836
         - 0.010401355538718
         - 0.018798881871545468
         - 0.051182940833950835
         - 0.0120234504254546
         - 0.0061692934492277932
         - 0.083714358422636095
         - -0.070878327451232195
         - -0.0092471775360794366
         - -0.098988418770016018
         - -0.0051194023622803606
         - -0.023032833093650534
         - 0.011637736233068298
         - 0.021531292522436716
         - 0.010754681964388186
         - 0.0074719982985000395
         - -0.0051510405812220574
         - -0.03955899573402117
         - 0.012705878518127108
         - 0.022231526087638877
         - -0.020578453118905344
         - -0.01016707847385101
         - 0.003529784920316512
         - -0.037080628816537821
         - -0.00025012915855352424
         - 0.028559425082906226
         - -0.0016364259481156205
         - 0.0055722024279657159
         - 0.0026836319401383995
         - 0.035543075974082246
         - 0.00068132713291645141
         - 0.016398221079811127
         - 0.021493007467508991
         - 0.01388086842801237
         - -0.034783426672252239
         - 0.00088153886978746228
         - 0.00038289303064995001
         - -0.0033753329432851761
         - 0.053289449091755814
         - 0.032616603614613271
         - 0.016990866303248642
         - -0.0037634911434774121
         - -0.012381392571548442
         - -0.038755762052592548
         - 0.020611761713173658
         - 0.015363271948587897
         - 0.025482564909421527
         - -0.040773117026063718
         - -0.0014577850512775331
         - -0.03223101563252416
         - -0.0097852958578278169
         - -0.0067970553485423033
         - 0.02246031098986034
         - 0.017958864236774102
         - -0.0067334243169602011
         - 0.01595387718279281
         - 0.010639469261040438
         - -0.0018424699591768495
         - 0.042097171968593534
         - 0.0035959386763361593
         - -0.011164360299805711
         - 0.021349808725630914
         - 0.015632378640808676
         - 0.095608224707248377
         - -0.0093227381217962004
         - -0.029573182878498389
         - -0.016523408946854841
         - 0.042208680699056179
         - 0.030413517021263388
         - -0.011065191516262127
         - -0.012955256193990204
         - -0.0036327361717748375
         - 0.012348790462486053
         - 0.021478448628548256
         - 0.0076656634166312985
         - 0.0098664173544034759
         - -0.016719576769398461
         - 0.013232200519456595
         - -0.076231721654436965
         - -0.013039402425468267
         - 0.060725528391861926
         - -0.10164425784869237
         - -0.01190555607521668
         - 0.029891020230285576
         - 0.048980876224893596
         - 0.012988238417598526
         - 0.0049368741764473636
         - 0.0030052270403772715
         - 0.010518026450524052
         - -0.0056785829439498902
         - -0.056111258029611887
         - 0.00073805666379197598
         - 0.0050465665410221218
         - -0.026631678416567391
         - 0.0088627942552878553
         - 0.00044774588562887106
         - -0.0069377222382518856
         - -0.018157361918242812
         - 0.028506497398676545
         - 0.00018229472029322367
         - -0.0068390054560078994
         - 0.0081758003942027421
         - -0.011720045068065288
         - -0.025612498732346427
         - -0.012397307297407836
         - 0.0096756645217421135
         - 0.00040962279297080431
         - 0.048766669084741879
         - 0.049300025776615714
         - -0.0034598608012849866
         - 0.028468293437338466
         - 0.033646905474891665
         - 0.0010558954701186442
         - -0.010779307276592771
         - 0.0066476422924596733
         - -0.0023275706252128595
         - 0.0043215344326201196
         - 0.022418589285299488
         - -0.004530618140136426
         - -0.06037746952244076
         - -0.0013640559411207038
         - -0.0071837238464867153
         - 0.0034043508539008771
         - -0.051024684873906108
         - 0.034998623241112706
         - -0.016500110762794031
         - 0.024119551886012749
         - 0.0079596702794282673
         - 0.015078722738013526
         - -0.013860040942490567
         - -0.0018301851129970223
         - -0.0025080667143673632
         - 0.03775616852398718
         - 0.00098124600903442172
         - -0.012936448340935125
         - 0.042197867261732358
         - 0.016184291634339716
         - -0.0022905957726494001
         - -0.011141584679936598
         - -0.010413378321658782
         - -0.057844066948854113
         - 0.011242339662935455
         - 0.034861993283621356
         - -0.11558616011907361
         - 0.044444868294486219
         - 0.067444407714733756
         - 0.068317621721785918
         - 0.0034035329871090802
         - 0.13029947625918673
         - 0.0014817894600619257
         - -0.022132297789504582
         - 0.0026003350054418866
         - 0.005393515046095641
         - -0.045710546828795204
         - -0.017589758404607702
         - 0.023529081558153128
         - -0.01104574936263805
         - 0.0071568756215995679
         - 0.04594854863550947
         - 0.00052709579421314219
         - 0.017021689241144451
         - 0.013438358482665743
         - -0.089072517641898885
         - -0.0063615002409456861
         - 0.041865470253859019
         - 0.01134900162044389
         - 0.019740673764097303
         - -0.0093878779240753364
         - -0.033928475276731387
         - -0.012938693141841994
         - -0.015344068501784993
         - 0.021208233012869757
         - 0.015613345464069903
         - -0.0068849780304169085
         - 0.01453820685803035
         - 0.0098714481759787729
         - 0.016512753400747995
         - -0.0014082217853973783
         - 0.087629841734032959
         - 0.023731430172857042
         - 0.071101859410346857
         - -0.033195747720320724
         - -0.089648087987127312
         - 0.01194687891577691
         - 0.0155156759264805
         - -0.035892852264506551
         - -0.033133792493111207
         - 0.0049000485744671281
         - 0.008460215701887196
         - 0.01438477220076833
         - -0.034036661300159567
         - -0.0026457299084232666
         - 0.016976570567103517
         - -0.085294740259991023
         - -0.017168071522015268
         - -0.014129777504567557
         - 0.0043041713404335848
         - 0.047553570866551979
         - 0.00032332981045133123
         - -0.021621915208128849
         - -0.0025932075438176963
         - -0.0004334625930833967
         - 0.043107417051356019
         - -0.010747040959856409
         - 0.051607149365087771
         - -0.045968968267443781
         - -0.021522018982472094
         - -0.0090299192935689773
         - -0.036129480485527846
         - -0.0041954316658281568
         - 0.020977377048290908
         - 0.010603269638827495
         - 0.0017704335085231564
         - -0.0019600639772350691
         - -0.027986677590688153
         - -0.0023398681671358956
         - -0.016322104280045033
         - -0.0052832945892640282
         - -0.0040113213807129143
         - 0.027095682287749865
         - 0.01946279501463976
         - -0.0068200940588395301
         - -0.018083185627176143
         - 0.026264516276345004
         - -0.022083056310599591
         - -0.0069549532174950955
         - 0.0018679343594286706
         - 0.0041594132586707799
         - -0.022074509490594536
         - 0.018723893763140497
         - 0.015079106980346962
         - -0.012028169498933688
         - -0.0079139817729225303
         - 0.015768045566006417
         - 0.056123770661260806
         - -0.0025236852123304656
         - -0.013050873045468309
         - -0.047015898583856505
         - -0.0016233516147152864
         - -0.048826240452321465
         - -0.06494393533018479
         - -0.013918111957044331
         - 0.0047139863635726094
         - -0.038363929783292776
         - 0.029819046392193647
         - -0.0023605739743410214
         - 0.0051875963749277677
         - -0.0071718574084054286
         - 0.0094211425943790256
         - 0.030579596637514056
         - -0.0090464047384126636
         - -0.023816529058670072
         - -0.023556449194540797
         - -0.0073684106132381969
         - 0.053048430177429676
         - -0.0017443435854780443
         - 0.004612259746663171
         - 0.015991232404068717
         - 0.031117980512203082
         - 0.011617323776817661
         - 0.022374050323873518
         - -0.030210986700142609
         - 0.0083381999596157282
         - -0.003724190429886645
         - -0.011822246114802853
         - 0.018848051630421185
         - -0.0072396521094252224
         - 0.015071022584652725
         - -0.018213038280573249
         - -0.00051550719266267261
         - -0.041380242490989282
         - -0.0069462594425160409
         - -0.031688562081557105
         - 0.016211499639068483
         - 0.014851649001811126
         - 0.027443835008702951
         - 0.036097846250844376
         - 0.017456933658522626
         - -0.018836445401884193
         - -0.16071206284164177
         - 0.016385386510857528
         - 0.010205054081720939
         - 0.075151850393882891
         - -0.061568599100452523
         - 0.013423751848285186
         - 0.015219550795592927
         - -0.012936902229255807
         - 0.043665271949944698
         - -0.0027899715162347217
         - -0.009574256113045394
         - -0.011714168754825137
         - -0.058807031198793179
         - 0.040961377781105174
         - 0.010772380680377912
         - 0.040558860463663027
         - 0.025222828694484049
         - -0.036476697583996777
         - -0.017019306844142351
         - 0.012324786495375424
         - -0.0076048458556389831
         - -0.056733010651390192
         - 0.010681473722486847
         - -0.020486061858765947
         - -0.00038710625426351662
         - -0.00065335700268059796
         - 0.036358251766588169
         - -0.020892343732388161
         - 0.0021894651829067117
         - -0.01676691087472033
         - -0.012072612114129527
         - -0.0098513767689320138
         - -0.0046690204245245243
         - -0.034442664384903648
         - -0.015758761461177721
         - 0.0034666667234934619
         - -0.0024086598649312283
         - 0.010261557146708277
         - -0.032439444860858563
         - -0.018444247945233364
         - -0.0042918089644717735
         - 0.045673301697839765
         - 0.027655737505472296
         - 0.0030441056686350771
         - -0.014646775668374868
         - 0.018565967527870843
         - 0.017805224155508167
         - 0.019395159151495461
         - 0.0084802385346618506
         - 0.044318378252604734
         - 0.0082535665375020762
         - -0.0037523886771253
         - -0.00059397966091660976
         - -0.023288573779281112
         - -0.012073470404681768
         - -0.008512350907286366
         - 0.0078515286315233388
         - 0.061751386654887615
         - -0.0075018393662042793
         - -0.012117283434742955
         - -0.0011005790784947855
         - 0.031154757889613322
         - -0.0021207191941295571
         - 0.064531888107097007
         - -0.025386489151748012
         - -0.013131811749554754
         - 0.023458609798143907
         - -0.011776997541343499
         - -0.031888879502839244
         - 0.00061310384755441471
         - -0.014454721007453378
         - 0.029833767402539044
         - 0.015952960764132149
         - 0.049318571324641909
         - -0.006855300531004198
         - -0.024983910961531235
         - -0.036927820586997333
         - 0.0060742934490865584
         - 0.014343829437557997
         - 0.020845844668581311
         - 0.049340428534584972
         - 0.015330461889804843
         - -0.017035972446826291
         - -0.010408964944624084
         - 0.0089322280025014821
         - 0.014192941682540353
         - 0.00091955343992059478
         - -0.055850475269291433
         - -0.021673037006800986
         - 0.013978964947182201
         - -0.01706132944833513
         - 0.026066999932495619
         - -0.0025278661040797185
         - 0.0056843391294441907
         - 0.070801243837962546
         - 0.015587775029410195
         - -0.00085956842968534699
         - 0.010980980509343409
         - 0.012408310003141493
         - 0.014098625526074916
         - -0.026133763675671211
         - 0.0011308807119289059
         - -0.0045214837462328019
         - -0.0011048735793200775
         - -0.0026227509166327849
         - -0.00083425673912132015
         - -0.0076196227138377402
         - -0.0048585046005912161
         - 0.010092362506826639
         - -0.0067274587166503974
         - -0.040101214712523342
         - 0.0070553229149427233
         - -0.048839491362170064
         - 0.025862383811792393
         - 0.0055584163109590641
         - 0.023999359943523185
         - 0.005528503116993766
         - 0.039533482451312843
         - 0.015192854301719275
         - -8.5777030322406833e-05
         - 0.024367756888373275
         - -0.0018580307816729172
         - -0.012927816065386812
         - 0.003305324180458391
         - 0.016804784062736663
         - 0.047681261259873965
         - -0.00031730577403648653
         - 0.058825622117181051
         - -0.0024365342736585006
         - 0.053813489826876455
         - -0.0060722500911701977
         - -0.015332677942206477
         - -0.017957192323449025
         - -0.016972616532458802
         - -0.025653906191794935
         - -0.002996540700760776
         - 0.015539151146870477
         - -0.047764882510887431
         - 0.01109929926832936
         - -0.020278925534346823
         - 0.006103901303481804
         - -0.039781687782730488
         - 0.025034211411056786
         - -0.018200380227292898
         - -0.016006547060743719
         - -0.14079816147244062
         - 0.0020166729606253828
         - 0.00067268937008066834
         - -0.011067352820892298
         - 0.00024840756962917675
         - -0.043041250039268522
         - -0.0078859005717805408
         - -0.092799949350026043
         - 0.02254923629268607
         - 0.0058221330364996932
         - 0.052095181269282712
         - 0.036099206014315689
         - -0.0003758910955099501
         - -0.037504165572913868
         - 0.029457152451038832
         - 0.026704230696021521
         - 0.016084398235669831
         - -0.0059582463527192179
         - 0.0036745605215910784
         - 0.0012195009835292221
         - 0.015222165860874744
         - 0.0074465887380473807
         - -0.032353026964002704
         - 0.048352752060203466
         - 0.003930490198267491
         - 0.006239581938083617
         - 0.019653253682546855
         - -0.056129295942872783
         - -0.0072968397945980083
         - 0.0078985355877058457
         - -0.014108015649090096
         - -0.071262297700910041
         - -0.02342805863803351
         - -0.017066304794858628
         - 0.016948421330542938
         - 0.0075265086166105225
         - 0.004082745787671818
         - -0.00066907527360830169
         - -0.0012499942834573309
         - -0.00025414191848953713
         - -0.018228069791747212
         - -0.0039642879879456571
         - 0.0079432215310615076
         - 0.0083983272537703144
         - 0.0012109882820590893
         - -0.004226529405074164
         - -0.062218815040718828
         - -0.016724903013804741
         - 0.035427496486948526
         - -0.0084916110373279546
         - -0.0077825187935614435
         - -0.014274881411165273
         - -0.016630195510474639
         - 0.005798417938847702
         - 0.013543184089579156
         - -0.021619043955029289
         - -0.019146545322569854
         - 0.01407457952395931
         - -0.038521306292562126
         - -0.0026725617364688147
         - -0.037053952466393134
         - 0.013526335858339289
         - -0.031571100627437843
         - 0.012958201314644962
         - -0.011198309510442034
         - 0.0073449409336859596
         - -0.013950011274628788
         - 0.039134472201792898
         - 0.025526579870978776
         - 0.041989498142040324
         - 0.060565715567530244
         - -0.00081105430710263853
         - -0.0032574214472503265
         - -0.023176792418890677
         - 0.0031399229056216418
         - 0.011371112261267637
         - 0.0088694171497283644
         - -0.025697286514821331
         - 0.028560222464113598
         - -0.023200435393430821
         - 0.0020538708827452026
         - -0.014467413132026652
         - 0.022200224772527564
         - 0.017383748129505015
         - 0.0093610381616662502
         - 0.002574092412124199
         - 0.0083698729025448535
         - -0.051736017524161751
         - -0.0072777979982900738
         - -0.030242878814359636
         - 0.0040906700571269848
         - -0.02565982216243614
         - -0.00047167176428607952
         - -0.0251223791503235
         - -0.0045673029449216753
         - 0.022590040911906771
         - -0.013936676085747167
         - -0.0015255941110067456
         - -0.0023348723318597033
         - 0.01622794700460662
         - -0.0032388327244775921
         - -0.0061771679814763506
         - 0.024582394304204079
         - -0.0075460563203285664
         - 0.013162815716230635
         - 0.014543764336417251
         - -0.0029122822924976355
         - 0.0017435908234017718
         - -0.028249447964822542
         - 0.0023846824110817927
         - -0.0031142330191281822
         - -0.016686067280537901
         - -0.00011216573551590794
         - -0.0049198629604430754
         - -0.0021024130149768622
         - -0.01024321631769297
         - -0.026440942063724267
         - -0.00669243357070039
         - -0.01795530721711696
         - 0.06047313183653949
         - -0.0062981710993832447
         - 0.008021891675739341
         - 0.026676466795884566
         - 0.015633536903537342
         - 0.034321364981666193
         - 0.031860161604470978
         - -0.03502931736645707
         - 0.0042667528470074481
         - 0.011322722619182294
         - -0.026925610284496523
         - 0.0076914963604675368
         - -0.0023709319939385388
         - 0.024831426363544271
         - -0.0096327437375943719
         - -0.011558975256485079
         - -0.060247085653445678
         - -0.0080320361023846366
         - 0.036452705475246219
         - 0.0048094442024577064
         - 0.018874466355752573
         - 0.010089398439964616
         - 0.042191485129795994
         - -0.00036342463781052287
         - 0.001391150800119816
         - -0.049614992017883199
         - -0.0029766422042160081
         - -0.0049138673851984137
         - 0.011142309914987339
         - 0.013198664756850383
         - 0.016631150960177851
         - 0.020958078443255354
         - -0.018870031642615463
         - -0.021306045691697462
         - 0.018085707289965253
         - 0.00030424770082850661
         - -0.030847716955803604
         - 0.011414079406941714
         - 0.00028102897222755455
         - 0.01180858631568104
         - 0.0090818345250775791
         - 0.050679756570092604
         - -0.038889185547888297
         - 0.0030957500769082089
         - -0.025880042947044598
         - -0.013802560469026557
         - -0.0048237858869591621
         - -0.07546775454258943
         - -0.02774554864171477
         - 0.00087436696368592979
         - 0.00515178444526439
         - -0.032712134225361268
         - 0.014592088258675438
         - 0.015291786636463748
         - 0.04175378609547261
         - -0.010793055311789519
         - -0.016031069537313859
         - -0.02762558350384535
         - 0.0069620188775153004
         - -0.017063391658539411
         - 0.0026760896575460835
         - 0.0080882395658933154
         - -0.025348032490442575
         - -0.020788173497790139
         - -0.014269239325385027
         - 0.010586009289853005
         - -0.003448043780565365
         - 0.018160374775935375
         - 0.01626090793614152
         - 0.038540714362123134
         - 0.0011347755727690917
         - -0.013176299088577639
         - 0.017299527688674241
         - 0.014523404903986464
         - 0.00074668330995091166
         - -0.011306079946260827
         - -0.00081427996492931787
         - -0.022820389070076819
         - 0.00091256890496700313
         - 0.026635751346410632
         - 0.0070424480579980827
         - 0.013419866758027112
         - 0.045281961485577289
         - 0.0064301066094377161
         - -0.025409250644334885
         - 0.014338479371550089
         - 0.016197218902992656
         - 0.00040694479915302269
         - 0.017699201885678351
         - -0.0029172942784974399
         - 0.0074974923561939057
         - -0.022437261206331573
         - 0.011860488026886107
         - -0.014846423333212216
         - -0.020297961381667801
         - -0.0043476005898428994
         - 0.012632365695792654
         - 0.024592774314600392
         - 0.0040509521980518675
         - 0.025225498631258943
         - -0.012321055827647301
         - -0.017690440987236416
         - 0.0062384383949091035
         - -0.029897007351301966
         - -0.00055781544028831451
         - 0.021519780559979988
         - -0.0070049507490650975
         - 0.018588396811331495
         - -0.041267429578325986
         - -0.0022975417789647375
         - -0.0083141753189041653
         - 0.010207921874900392
         - -0.046779993916656444
         - 0.034363133938334733
         - 0.015907162659849906
         - 0.046779999038721522
         - 0.06685051575637467
         - 0.0041449822507441487
         - -0.020504480020990791
         - -0.00072104652002080087
         - 0.0095426793596433378
         - -0.012299604368084797
         - -0.013276665171516896
         - -0.0080030130142433303
         - 0.0041076011542018542
         - -0.017853712247241214
         - 0.016084482411560925
         - 0.0047448767541237108
         - 0.027920427620924365
         - -0.018401964387819995
         - 0.0075232403203459889
         - 0.0028776604687994209
         - 0.0046374715268445261
         - -0.0051355378809598744
         - 0.013921954567308987
         - 0.0049055881409902592
         - 0.022866119309748984
         - 0.00021806321458693855
         - -0.017136903664538704
         - -0.0096842254743154561
         - 0.051674153801007101
         - -0.028108357319825684
         - 0.0021880195349146918
         - -0.0022637104679146293
         - 0.0080695070452684193
         - -0.064948884832683629
         - -0.026749134924056409
         - 0.0088922670118637102
         - -0.032643294086493982
         - 0.021793878319596366
         - -0.0089198220415898938
         - 0.012029359516232793
         - -0.023625392037749396
         - 0.001159300157742293
         - 0.0045499829050485614
         - -0.021824073089056602
         - 0.00050905660634676113
         - -0.034178819485877469
         - 0.037891217844983185
         - -0.0027832139473082276
         - -0.030434293074949437
         - -0.0041971899451457174
         - -0.039063437554914093
         - -0.024463912402203161
         - -0.037522866842083231
         - -0.010819153690070527
         - 0.00084708169941524498
         - -0.014857457958234451
         - -0.016973188429826508
         - 0.017553680185524764
         - -0.053337919524072415
         - -0.0047582735029016183
         - 0.015358641163063977
         - 0.025953167656337317
         - 0.0070897840717567403
         - 0.046541946589199669
         - 0.019968010379708741
         - -0.080768956110036608
         - -0.027450552733444496
         - -0.027487088820408179
         - -0.0094054713093457195
         - -0.046243535184343404
         - 0.023801777216301102
         - 0.0080843030237144672
         - 0.047128396467783294
         - -0.025131257880502005
         - 0.015321715297912642
         - -0.0028289720214058844
         - 0.017261169171990106
         - 0.012209922029563168
         - 0.00289724374866572
         - -0.0086764570186477156
         - -0.028905416868664997
         - 0.030819604890101823
         - 0.011094992316973976
         - 0.014607871260305466
         - -0.0038605184012849851
         - 0.036540310081821008
         - 0.0037605709338595617
         - -0.010354276102165749
         - 0.011539609838655393
         - -0.046954453073812928
         - -0.0053374373404785269
         - 0.023237743579611354
         - 0.017760629446500528
         - 0.0070109622301451425
         - -0.0080239105960199716
         - 0.0023168415683007346
         - -0.067708801030401874
         - -0.0045054663538640618
         - -0.0041951117417244731
         - -0.025899473278516567
         - 0.0063265412877942717
         - -0.042597654225729038
         - 0.021256009631616335
         - -0.028399950945050798
         - 0.017822294566685108
         - 0.083016784082546743
         - -0.0022219385394799725
         - -0.010328004645945433
         - -0.04051400503881554
         - 0.041679618243478322
         - 0.012383784206091078
         - -0.013458366120561652
         - 0.0083957633759336164
         - 0.0065685125928826148
         - -0.016777237567426457
         - -0.0052004429140634079
         - 0.00024305091035061677
         - -0.0099367029942774542
         - 0.014957177946022219
         - 0.005706544219577241
         - -0.020599151937019122
         - -0.00086450091489233705
         - 0.012359683130856119
         - -0.0041350488446575797
         - 0.010368307010283191
         - 0.0026670852229124498
         - -0.035668496565790027
         - -0.026014239660234466
         - 0.0081237235781888659
         - -0.014637309249082622
         - 0.0092435345241364021
         - -0.037874226422845506
         - 0.0067535667246255079
         - -0.019989964730034154
         - 0.023259857578479863
         - -0.0081602171113723306
         - 0.004484545376879528
         - 0.019380273606758567
         - 0.051371575630960314
         - -0.015223961790976749
         - -0.015711032196561846
         - 0.0063744151810601474
         - -0.0052954543076361984
         - -0.0071457173595171359
         - -0.014450731393977543
         - -0.086913658656144463
         - 0.015831764344724768
         - -0.0044033104735772682
         - 0.013694706625446595
         - -0.038474304176034188
         - 0.00078957637370747659
         - -0.0083361173899266418
         - 0.0086331503132411926
         - 0.035031170757358815
         - 0.0033704425775194636
         - -0.029393302023105809
         - 0.011668222236401873
         - -0.035945512537503735
         - 0.010713863889555027
         - -0.0052891509356200895
         - -0.0054958445514052207
         - -0.013840881574997022
         - -0.021104812370253294
         - -0.078072258728560939
         - -0.002082484457240946
         - 0.00036945802178383659
         - 0.0043612745309532129
         - -0.016141571465547341
         - -0.017861525829464282
         - 0.017788323786345053
         - -0.020112620407460952
         - -0.010285916096249894
         - -0.021282509024481099
         - -0.00069969489502185963
         - 0.0085670112290479761
         - -0.011364186433769312
         - -0.016090568563649179
         - 0.00077512788400071206
         - 0.0066860414395427626
         - -0.01148980482239252
         - -0.0024227230048901884
         - 0.010705487822258176
         - 0.012835434110703628
         - 0.00095264035596004317
         - -0.083570600552160812
         - -0.058375708618271203
         - 0.0092881224618949539
         - -0.016287209122269972
         - 0.015790899907970134
         - 0.0073301037397604839
         - 0.01253771643897294
         - -0.010112967348974185
         - -0.0089724402899281023
         - -0.01607861583325304
         - 0.0096710922031879223
         - 0.04301023538375319
         - -0.012600710661095792
         - 0.0082037653658854764
         - 0.016428244778500922
         - 0.031271732308657582
         - -0.014081346690038457
         - 0.0041150536509740312
         - 0.0067762238736221629
         - -0.004458506199896216
         - 0.0019936748431004128
         - 0.00076589226569809287
         - 0.11784602889390783
         - 0.010366250641895206
         - -0.0082191212078873976
         - -0.021273357382344697
         - -0.0014162359610995076
         - 0.0057190029852343897
         - 0.052344738954014799
         - -0.012220594877410007
         - 0.037617508109434233
         - 0.087946382556259153
         - 0.010718844079612598
         - 0.0020851087840585238
         - -0.090084689735685605
         - -0.21988575521216738
         - -0.0015380863436975883
         - -0.0010154156607778088
         - 0.0022453851399654068
         - 0.04031559199000001
         - -0.036270176826864398
         - 0.015075811232264908
         - 0.006619833082562687
         - -0.0044925545170291159
         - 0.018858325965834203
         - 0.064709236850179222
         - 0.0037064645750147988
         - 0.039407473152369581
         - -0.0010402820422865838
         - 0.015476801104393057
         - 0.0012877676500299068
         - 0.13895390525225457
         - -0.020566736921671287
         - -0.0031495198482653338
         - 0.0093534664243288823
         - 0.017880335475951904
         - -0.033905284998731931
         - 0.0058657792054133719
         - -0.001522182914619197
         - -0.096093339073235876
         - 0.016635859117140044
         - -0.0071087719300369596
         - 0.023245887852289881
         - -0.043733557520146175
         - 0.0094910908056865129
         - -0.00041183076015113899
         - 0.046998681638122909
         - -0.049233960586913136
         - -0.010411494414723478
         - -0.0080932579175424773
         - -0.011044504799389149
         - 0.0013258920725262901
         - 0.026830358273704911
         - 0.0098007698576543078
         - 0.022328569854560384
         - 0.0069845650069417838
         - -0.024721897318640506
         - -0.013252861187385084
         - -0.002046389552987536
         - -0.081075833020147994
         - 0.0062316902620497142
         - -0.051486636203655997
         - 0.016143282760522942
         - -0.014180497922006411
         - -0.042240288328832476
         - 0.029820771798587671
         - 0.053372311296057899
         - 0.028038643991078464
         - 0.016894176594351482
         - 0.077654566658134014
         - -0.010219817112072687
         - 0.0095696323824460156
         - -0.0068164212477786201
         - 0.035763585592012134
         - 0.021192290030385308
         - 0.045739608287419513
         - 0.015133432177862085
         - -0.0030275411791975317
         - -0.030623215419658331
         - -0.0083178439512672838
         - 0.013822860733001612
         - -0.03140892649394985
         - -0.041754296998673224
         - -0.0012048321699422244
         - -0.14600969366572736
         - -0.11139148249933251
         - 0.077937696522948921
         - -0.0053496002310350101
         - -0.0031330133274568976
         - 0.029621232979244603
         - 0.0083389942226256321
         - 0.0037539978893865742
         - -0.036356529516548802
         - -0.018184565345464174
         - -0.024647996429409957
         - -0.011477713615304183
         - -0.0072984861458241573
         - -0.0011258708633999552
         - -0.016280991272787856
         - -0.00041045758819675013
         - -0.0044650224427625852
         - 0.008568020005233783
         - 0.00065671307071700567
         - 0.0028097605791602255
         - 0.042718531662201242
         - 0.0094962278734400645
         - -0.0059548203860585987
         - 0.027513609171831294
         - -0.0097660107582794552
         - -8.2084517352259301e-06
         - -0.07817975195131438
         - 0.055192192182525746
         - -0.019783630091493323
         - 0.014907324220046342
         - 0.0006499230486042278
         - -0.00956614396156979
         - -0.0018316637315712685
         - -0.0092280846893509211
         - -0.0019018683845968048
         - 0.028413562631884322
         - 0.051195363240945528
         - 0.016792052490075173
         - -0.031289158485630256
         - -0.011529887051156368
         - 0.008420967017439494
         - -0.014519252144944607
         - -0.025585178151248243
         - -0.025380608407761154
         - -0.0093313933349247792
         - -0.026245239055175132
         - 0.0095628042816751826
         - 0.064773955015729176
         - 0.032269592237123966
         - -0.0046664931505730443
         - -0.0055509212359680284
         - -0.034304648743224031
         - -0.0093750711704977379
         - 0.019857048412979542
         - -0.0086950827582081315
         - 0.005824232339967721
         - 0.010309220148182401
         - 0.0083867066111554135
         - 0.010289713000501239
         - 0.046043093223257898
         - 0.0093089374307685213
         - 0.0068799827299687276
         - -0.0087518646272454603
         - -0.018219212978100943
         - -0.0021206542926257856
         - 0.011091205689747197
         - 0.11045351151314665
         - -0.11573060303350073
         - -0.008478100317228579
         - -0.0090635150739594508
         - -0.028982953611603548
         - 0.031704659257359345
         - 0.051512499888455167
         - 0.023403458947127517
         - -0.04790957083296879
         - -0.0016878828787916049
         - 0.0064719168366280796
         - -0.018078125704211488
         - 0.0091113120432742556
         - -0.022673078322497479
         - -0.00714165942708092
         - -0.022055614348658711
         - 0.0037097817085112081
         - -0.010102016835960402
         - -0.00432712453198644
         - 0.014149503797251908
         - -0.053622554330215982
         - -0.029309352090564605
         - 0.0083874498383663693
         - 0.0056448828508595247
         - 0.038122469434651585
         - -0.033117534578479116
         - 0.045239209761818028
         - 0.0045925477014865986
         - 0.031520214432904092
         - 0.0053581813014552081
         - -0.0013268609835604393
         - -0.019449498581086223
         - -0.011066787237138843
         - 0.030465850933195298
         - 0.0061864253324197755
         - -0.033460819257790105
         - -0.058622953211547049
         - -0.063001521004114408
         - 0.023964816476054331
         - 0.0098065122340590706
         - 0.038208061555906107
         - -0.0041812207337524046
         - -0.0029102449534751419
         - -0.043543107256549002
         - 0.071226645137578842
         - 0.01325580482311285
         - -0.010697797797448097
         - -0.012844167309570532
         - 0.0088198093448422863
         - -0.10558490584125518
         - 0.011775753086649831
         - 0.045134398139822576
         - 0.00035176253755058313
         - -0.018583846978868727
         - -0.00604969199295369
         - 0.046758551027316533
         - -0.0032282071344562806
         - -0.0080158615132383242
         - -0.0046593598405167439
         - 0.0070106010744833084
         - -0.026398233241941266
         - 0.011294961980472026
         - -0.043563522346098373
         - -0.24346449043943508
         - 0.023887090530184736
         - -0.0040711161698888752
         - -0.079760798159061508
         - 0.010087612182675943
         - -0.045421430877106123
         - 0.023567696231028733
         - 0.020189528840771163
         - 0.030824587678849644
         - 0.0073255531010786509
         - 0.052987826743668538
         - 0.0032847104071796604
         - -0.03132241593134108
         - -0.016067186162003741
         - 0.0058412972832207763
         - -0.0090142096919427362
         - -0.016266886691484524
         - 0.052676935377275878
         - 0.03468202542750512
         - -0.0064149950324728861
         - -0.0043158062756171577
         - 0.00070203298927084797
         - 0.021932610239548424
         - 0.031228716627109507
         - -0.00760307148246845
         - 0.025180291896353756
         - 0.013270644083025869
         - 0.021825748294825465
         - 0.012330864222340024
         - -0.054103263612665577
         - 0.0044199658959765686
         - -0.024793801275859246
         - -0.045128847868765233
         - -0.023354211266237813
         - -0.075787308890989474
         - 0.05467553796404765
         - 0.02372852281160143
         - 0.019452548812356911
         - 0.031152348372631939
         - -0.022556216852807856
         - -0.023352943027385432
         - 0.0083031754096599963
         - -0.0092234564983145612
         - -0.007160644636398753
         - -0.0063961422274183277
         - 0.011925911123470674
         - 0.073311302029543599
         - -0.10939959575461577
         - -0.023020946285742229
         - -0.010533792437411659
         - 0.014344933330847869
         - 0.0054872830816943309
         - -0.069366995967676259
         - -0.032601733438984273
         - -0.016340892382041641
         - 0.0016133830342708105
         - -0.09624254984242861
         - -0.066230520814932178
         - 0.018728370803512612
         - -0.0092128886858045527
         - 0.004511638317947265
         - 0.0035816289880140849
         - 0.031631882372029137
         - 0.0074869897756545444
         - 0.00049634017063500424
         - 0.017299594249491689
         - 0.0047184436527048989
         - -0.0081806858565259578
         - 0.0085724166192055057
         - 0.022895541057809769
         - -0.005804825691251651
         - -0.0057310070925512225
         - -0.0024958077292923275
         - -0.010311861178745154
         - 0.070682708769090496
         - 0.0094714671689927806
         - -0.0083278764291363147
         - 0.012895315198970785
         - 0.056190008942473939
         - 0.010214541967040474
         - 0.0023795903794285094
         - 0.0024010888401866954
         - -0.0098172677897474022
         - 0.007777002505046599
         - 0.017034428215490036
         - -0.010841556253242511
         - 0.049785190456395338
         - 0.14282942046272168
         - 0.011530557412067797
         - 0.010984449920146669
         - -0.015220321287349344
         - -0.075367954814291427
         - 0.0007985977547217139
         - -0.0022178303728314706
         - -0.01526117121222521
         - 0.053623011045030491
         - -0.063895337942962205
         - 0.015605093365523718
         - 0.011699914496076085
         - -0.010050144388144496
         - -0.095879904231694221
         - 0.036364715122675709
         - 0.00040846960166838971
         - 0.026758098549979306
         - 0.0082405399024265257
         - -0.0040306702453204966
         - -0.011747326580068104
         - 0.08876651723531058
         - -0.0018709627114454031
         - -0.0089262937689301332
         - 0.0064050670444142418
         - -0.0012882634644583422
         - -0.054831192730407909
         - -0.079445656833065662
         - 0.0037779513656595151
         - -0.083998413964721783
         - 0.02505209509416409
         - -0.018649595561212255
         - 0.021542241528513612
         - -0.047424842257975691
         - 0.0076861583273870734
         - -0.01966301495280913
         - 0.02682217411178963
         - -0.058431528726026132
         - 0.011049677619974819
         - -0.0099532605945771412
         - -0.024425275215706505
         - -0.0030905344460815673
         - 0.025282935073751834
         - 0.0068093155819608396
         - 0.010335635889366304
         - -0.019042808133712012
         - -0.023586922060396781
         - -0.060446656569514527
         - 0.0043492920955241141
         - -0.13468381496298965
         - -0.013526863181574825
         - -0.068787603849124704
         - 0.007768244680074708
         - -0.01203830907852052
         - -0.066734582310598062
         - -0.00035882552420313246
         - 0.047637668190210744
         - 0.041659557718583498
         - 0.017545962716990611
         - -0.015241636380688902
         - -0.017298794525001451
         - -0.035629674452033598
         - -0.017394005547945846
         - 0.033582777068058144
         - -0.0064423478194372283
         - 0.028505647835749021
         - 0.03400919090403446
         - 0.0018174123732274613
         - -0.065661253385420615
         - 0.0080076906794603834
         - -0.0048565947908356354
         - 0.014158437117733125
         - -0.033424322729945194
         - -0.001742682541733325
         - -0.1406942070293748
         - 0.010600568432427661
         - 0.071277108282482002
         - 0.014183597882343258
         - -0.018452073310725632
         - 0.051724167120533251
         - -0.0058322593398968288
         - 0.0012156042733829206
         - -0.0406933656011296
         - -0.017372153317866523
         - -0.00035394410737083832
         - 0.0011081814151299879
         - -0.050179149266341552
         - 0.0092915347164470204
         - -0.015195565630476299
         - -0.0027247156072656271
         - 0.0089828660422822774
         - 0.020160270767786453
         - 0.0013441791187592102
         - 0.020136436520824277
         - 0.011817584313320612
         - 0.003460621426634251
         - 0.0012702855411419064
         - 0.036816447708259245
         - -0.0057556330952974405
         - -0.0012596947438853106
         - -0.031215642781018241
         - 0.044902005049235916
         - -0.018096097899104789
         - 0.0025455046345150886
         - 0.01252388318847868
         - -0.12454023181988126
         - -0.014337002417363751
         - -0.0049301225158671705
         - -0.017542225857676043
         - 0.031056266409503201
         - 0.03274414458990009
         - -0.064745995446587379
         - 0.044788304563150347
         - -0.022001944892966196
         - 0.0089080859506830493
         - -0.057689771510817327
         - -0.02098168633493264
         - -0.010216589854227218
         - -0.0034956498945861395
         - -0.01295640612580623
         - 0.03777434185189308
         - 0.0038413699699865285
         - 0.020060625319195943
         - 0.00105254513505976
         - -0.0030482428115826592
         - 0.0080066355469903972
         - -0.0133666845557279
         - 0.012486755298806699
         - -0.0013494091108864404
         - 0.00085753245854005991
         - 0.00019429316695542695
         - -0.010770240590482634
         - 0.0030344942703473265
         - 0.10379508217847754
         - 0.0051722671065173439
         - -0.0011264436627709852
         - -0.037565972831033377
         - 0.0033024569532059045
         - 0.024738759955730633
         - 0.00010790022560183518
         - 0.15534645616359688
         - 0.019138059964521992
         - -0.078618751901487594
         - -0.019144805580621135
         - 0.0040200397115563681
         - 0.04397758416294708
         - 0.0026745231205785487
         - 0.0012531577131766293
         - -0.086585847309325795
         - 0.0011447292836035262
         - 0.012375324366001054
         - -0.019782423390110611
         - 0.013292501440766749
         - -0.02037420969125834
         - 0.013927750752590758
         - -0.00077118199754723645
         - 0.067469096535601195
         - -0.014522940218576532
         - 0.015493547285552188
         - 0.021645286128913588
         - -0.034687116854803732
         - -0.0056169496119364143
         - -0.006703807880205105
         - 0.032991662910985639
         - 0.045298503670031715
         - -0.061425646917145603
         - 0.048492224972440143
         - -0.019479075606490964
         - 0.0079431214694975719
         - -0.018197789430121739
         - 0.0011534585196443493
         - 0.01098938004022198
         - 0.010419567565825478
         - 0.0076266024329118241
         - 0.027385709835046925
         - -0.051567598971025787
         - 0.0026746275542733644
         - -0.086374203846367195
         - 0.02035262063665523
         - -0.0079148566325056343
         - -0.0047360983292313065
         - -0.03185234048772019
         - 0.0060719261195663751
         - -0.035107350193167131
         - 0.094178566124307195
         - 0.015606614187884759
         - -0.014909248280318562
         - -0.00022579654471161775
         - 0.026525269257902089
         - -0.082222698640685626
         - -0.017965130347490317
         - 0.027365025704600098
         - -0.0068072242959991217
         - -0.025404150842710839
         - 0.0014183593620600884
         - 0.14737630874904786
         - 0.0094143866641631414
         - -0.0012537380447281757
         - 0.022019809403311347
         - 0.031706067692465721
         - -0.037278039222319231
         - 0.025531130016587952
         - -0.057060435681636767
         - -0.13258370265652836
         - 0.025974397047696336
         - -0.0049445492888619538
         - -0.06845298763781614
         - 0.0011567669428072206
         - -0.033023920240381144
         - 0.050723041013076259
         - -0.013442421019523393
         - 0.033640979693805494
         - -0.0016176414630136994
         - 0.043361058724207639
         - 0.010779844319603717
         - 0.011041500524379954
         - -0.015180879008487717
         - 0.028851079862340492
         - -0.0098399822737091705
         - -0.010265044678358037
         - 0.022864505750673329
         - 0.020786367873907811
         - 0.0048480950431129925
         - 0.012535225762142142
         - 0.020497091030132437
         - 0.025914999946779427
         - 0.045946339604917702
         - 0.0031058637880185419
         - 0.03856495939139204
         - -0.016967995490840347
         - 0.076902741663338131
         - 0.00084461093312902162
         - -0.059620223520941665
         - -0.020427375884087141
         - -0.014579565917649756
         - -0.03438523771289257
         - -0.043661190771061523
         - -0.16691396600660791
         - 0.057548429367231889
         - 0.0074445219241019989
         - 0.02870452380342299
         - -0.031199010619915896
         - -0.019282895648820478
         - -0.024825211167849266
         - 0.0060551737674441868
         - 0.0060597098913949482
         - 0.0095506869085073796
         - 0.026152190486058081
         - 0.011956140917643632
         - 0.079852557411391675
         - -0.062340349175645134
         - 0.0019068396637484681
         - -0.025303483232039965
         - 0.010928417511835207
         - 0.013253690074096418
         - -0.035294826241729194
         - -0.079148666434894988
         - -0.008788816191233775
         - -0.00057343563335337372
         - -0.015999930677485636
         - -0.09215389177786304
         - 0.010537350030125441
         - -0.014346613185796202
         - 0.0069656829198111508
         - -0.0065551920943576064
         - -0.018833424773109765
         - 0.0045019354049553907
         - -0.020791197721810671
         - 0.029828087403811265
         - 0.053936651819548105
         - 0.0014978608949408169
         - -0.010669808734329675
         - 0.027586091567774064
         - -0.0071903363754607392
         - -0.012824597925298265
         - -0.015942708813201908
         - 0.0010953575307225006
         - 0.056583783148669055
         - -0.014167958443470621
         - 0.0068586756300273019
         - 0.0097199482419844784
         - 0.041545330503115124
         - 0.015958742723444053
         - -0.017233898734504389
         - -0.0032151865232924026
         - -0.025570422009637536
         - 0.0032775557555432158
         - -0.063079439010323882
         - 0.0022299222673340764
         - -0.045909027919654177
         - 0.037218229645313475
         - -0.0092980057474277046
         - -0.033813298817959803
         - -0.0029502232822810953
         - -0.007273863455392029
         - -0.0092187192879934991
         - -0.074007179673311524
         - -0.009224059624271589
         - 0.061620530393182341
         - 0.015050595130548933
         - 0.039346691119470145
         - 0.02044871138496596
         - -0.0034616738797213519
         - -0.021835824545259057
         - -0.023180623079925491
         - 0.014484747576510696
         - 0.011718091290182229
         - 0.001081935600531997
         - 0.0066212354772742553
         - 0.0027226978494753005
         - 0.021751072780200741
         - 0.044461797268379337
         - -0.014177193574286207
         - 0.0061108460781564783
         - 0.0016611544419631117
         - -0.023846663768810648
         - -0.076523021575604769
         - -0.010252855857204115
         - -0.00012916126900622992
         - -0.0055623531768323863
         - 0.0056317100705110075
         - 0.0057827766541891168
         - -0.0045665214394933675
         - 0.027140160349372833
         - 0.013913119375675837
         - 0.051460756763121195
         - -0.012130327447314368
         - -0.0034529496169216178
         - 0.0084593862711863609
         - 0.0044677849414535859
         - 0.026437049371100575
         - 0.0066999766899252513
         - -0.0097796625972620625
         - -0.029055151571932055
         - 0.0087636632633119674
         - 0.0083010482181448166
         - 0.0077345156191169721
         - -0.012964691932057531
         - -0.0013105625880519753
         - 0.019827897480862521
         - -0.0033458735580516011
         - -0.015647895748600441
         - -0.011521700411895713
         - -0.0075282402350865633
         - -0.041375163574656579
         - 0.044571802632701288
         - 0.046903617517429864
         - 0.021699741838684925
         - 0.045207213234520836
         - -0.018085329073196998
         - 0.034314918050295476
         - -0.012063224631411507
         - -0.043268211226378049
         - -0.041343269214996411
         - -0.027396681787596647
         - 0.012149970173211769
         - 0.0071110298447624254
         - -0.0035779385464539022
         - -0.016821991573790121
         - 0.016995503460541243
         - -0.024005667525555295
         - 0.046300772483177273
         - -0.029227825218081278
         - -0.060872464621522168
         - -0.039896022747559962
         - 0.055635921262099548
         - -0.0058859639600347124
         - 0.034979777705035887
         - 0.11793205659896502
         - -0.0073416025633967303
         - 0.032249111060384618
         - -0.06766083262934533
         - -0.0023029511011944961
         - -0.0017344247655489548
         - -0.0022029012127251354
         - -0.015172614293976266
         - 0.012041224960829492
         - 0.021271803913982926
         - -0.016122423064947339
         - 0.011639367588531013
         - 0.019180960548284672
         - 0.0083507342157832821
         - -0.0031471929801519093
         - 0.027003043384860165
         - -0.0053714103111522481
         - 0.015075345793712334
         - 0.019325018224103291
         - 0.083586078217832788
         - -0.0078782271864196382
         - -0.040883070408969255
         - -0.0038862929151787856
         - 0.0035307750771926159
         - 0.0083288403801700956
         - 0.019652721324383185
         - 0.021733060406957844
         - -0.035982636876436228
         - -0.0083712271908969287
         - -0.067861133957491854
         - -0.0062603834502539639
         - 0.01068687975704655
         - 0.08021025747566167
         - -0.048659350971571945
         - -0.046908363225955207
         - -0.025104448048561736
         - 0.04124994962926011
         - -0.0086476198294637759
         - 0.067493254467125924
         - 0.0037163353340330333
         - 0.0060879406328140147
         - 0.014354419293600904
         - 0.0059740351035330102
         - -0.030325141389284355
         - 0.017605327447106234
         - 0.0017988899999418573
         - -0.055105927607483007
         - -0.0045422033873277401
         - 0.021861541511027056
         - 0.015043993708396066
         - 0.030528041510640692
         - 0.014632975826864384
         - 0.020964011756065191
         - 0.0055565801650115636
         - -0.13107836787161464
         - -0.03771038039524785
         - -0.0045610628205359988
         - -0.032061184891548945
         - 0.014882249938725538
         - -0.042394078946195547
         - -0.0070664772734726879
         - 0.01873848990263207
         - 0.038641127129175612
         - 0.0081627179863052891
         - -0.022276708633247162
         - 0.031831820716377433
         - 0.018890035046718864
         - 0.0068928979525928668
         - 0.13360975848379136
         - -0.083360327081044447
         - 0.014792553712443758
         - -0.023169513622968207
         - -0.056291648587791676
         - 0.013106839488907748
         - 0.009584960588188772
         - -0.020618430070250604
         - -0.06716218202013699
         - -0.026592931895861902
         - 0.0030427712395361345
         - 0.0075919659140213638
         - -0.0048139458617391696
         - 0.026336467845217398
         - 0.045910553755582763
         - 0.0064619160120923357
         - 0.037903904495393013
         - 0.019543162749852169
         - 0.024566091019904611
         - 0.026230342927580218
         - -0.010510006278666601
         - -0.0025771996517615597
         - 0.00551751222885556
         - 0.005868358902122517
         - 0.0078293555796886526
         - -0.0060943077987273041
         - -0.02578888949517829
         - 0.010642151158902177
         - -0.0040229662434196397
         - 0.03779170171931532
         - -0.032544910233667679
         - -0.048164189392903414
         - -0.0460042707441113
         - 0.0027971718198087506
         - 0.0045193504179136673
         - 0.022810881046893949
         - -0.037671311193637667
         - 0.076403952994107682
         - 0.0029055235226934061
         - -0.0097079358468390928
         - 0.0065751063358898713
         - 0.046853528201072657
         - -6.0254651858591244e-05
         - -0.06814632885653614
         - -0.05336866655071057
         - 0.0064090455987323861
         - -0.089904141432400733
         - -0.010945859231196044
         - 0.10710668183235073
         - -0.014320694668576271
         - 0.037338203376720974
         - -0.017276098992864655
         - 0.010963584872865561
         - 0.023803398021685903
         - 0.069254695593141957
         - 0.043029778601450623
         - -0.032134638421508911
         - 0.0081780219308559016
         - -0.0040122270137405514
         - -0.0004759233339061736
         - 0.0031459790902266449
         - 0.018561356060928454
         - 0.017597552334591579
         - -0.011293988498732244
         - -0.05756111884028868
         - -0.090262808025690741
         - 0.023692742971220575
         - 0.0037128685646401049
         - 0.017877183199567888
         - -0.0044458451785345295
         - -0.012255630462191988
         - 0.002931017688449649
         - 0.011453687973857589
         - 0.070011795801015381
         - 0.0095386967024081049
         - -0.0060664501523204012
         - 0.0017423492652468243
         - 0.015594351395470302
         - 0.03784949812937697
         - 0.016302700569733798
         - -0.02508687804112749
         - -0.013305011068843195
         - 0.012259883668637877
         - 0.0044622035811438905
         - 0.0050125777472321649
         - -0.021486007266906963
         - 0.023293370375721819
         - 0.0029181302586003262
         - 0.051981164874120585
         - 0.062767514140434494
         - -0.062191123376228452
         - 0.062265125531129666
         - 0.0098516305889095254
         - 0.015286919232316615
         - -0.029787936208647732
         - -0.024180044371787505
         - -0.013740750149357685
         - -0.0061061912588464958
         - 0.0041842679002980169
         - 0.0089729055957413432
         - 0.13043021428042445
         - -0.018844738663156654
         - 0.03021162671818655
         - 0.096182653419349839
         - 4.812398410841699e-05
         - -0.038495645899175597
         - -0.019141069214395252
         - -0.014209917626613604
         - -0.041691215875232029
         - -0.020131005440326553
         - -0.0079988595492224614
         - -0.013156357491775133
         - 0.005027670806692172
         - -0.070926364108329601
         - 0.0070360352203478306
         - -0.017167859869702838
         - 0.012728483323529034
         - 0.0071816340038720573
         - -0.026724589221350483
         - 0.0011143859989390602
         - 0.021058543077900789
         - 0.034692566374868318
         - 0.054324735458384669
         - -0.069377420418500188
         - -0.015890917161622709
         - -0.029652464455951773
         - 0.0023560790455591286
         - -0.012271951528028791
         - -0.017368464082483423
         - -0.039065625051220604
         - 0.041059277224273508
         - -0.026766375432391413
         - -0.0031442107420524769
         - 0.036950534639142302
         - -0.023942672854724581
         - 0.01247386631378971
         - -0.0065744837134892103
         - 0.0055336829497542404
         - -0.025141390311236005
         - -0.0013796449294389208
         - -0.035246209503098917
         - 0.021784477740823979
         - -0.058734650858066575
         - -0.074991891418057857
         - 0.0013867375613722532
         - -0.020966460103397987
         - -0.05999896854483576
         - 0.001162195953996231
         - -0.0077453502705751437
         - -0.021476432558828019
         - 0.0042395323198077973
         - -0.06829211955169999
         - 0.037194885037479239
         - 0.0032178272374260852
         - 0.00027575335689172939
         - -0.013195045195104796
         - 0.051875368836467789
         - 0.005575336172676899
         - -0.014811674293930354
         - -0.041556674198244686
         - -0.0043474002063184011
         - 0.00062327058431283779
         - -0.001358474267215865
         - -0.019733291459271111
         - 0.015329334236459191
         - -0.013077202899904734
         - 0.0058062725518547229
         - -0.011766227983958861
         - 0.052701718480760322
         - 0.07533783118682047
         - 0.004181160740731822
         - 0.074575325725191183
         - -0.010437475318414399
         - 0.014637129040490594
         - -0.018574358458745995
         - 0.011815358036519692
         - 0.026918426638019976
         - 0.00099350127160701285
         - 0.034601991322413289
         - -0.024184878953563877
         - -0.0050091744992741402
         - -0.0070833415510311816
         - -0.0027009934619753825
         - -0.0098746469135386067
         - -0.030978531112234052
         - -0.014904058567965447
         - -0.029378437289913507
         - -0.004421617814323018
         - 0.0054550552449490822
         - 0.038500550610611209
         - -0.0027127737506746101
         - 0.043118793537774702
         - 0.010450088628115273
         - 0.007766167223131914
         - -0.021221449243830168
         - -0.0071720408416807045
         - 0.016998070902038757
         - -0.0062828600957470504
         - -0.072077204637180189
         - -0.0012654196499517971
         - 0.013874363239620827
         - -0.024017110394157177
         - -0.0031624699444686216
         - -0.0085045559666084951
         - -0.0042628853657763303
         - -0.031657925189626485
         - 0.009522896052626224
         - -0.06642005517368145
         - 0.0060762524273761265
         - 0.0099821697477773322
         - -0.0002765175279579593
         - -0.016816488527252357
         - -0.016025054928150699
         - -0.027708315239824619
         - 0.049851879902487052
         - -0.030298882274864214
         - 0.0080428996930029719
         - 0.054480748288350485
         - -0.016175937038876365
         - -0.011936395663941892
         - 0.001252552514371261
         - -0.087458662319730096
         - -0.011305226668096677
         - 0.021349422444634232
         - -0.086625351250671806
         - -0.019848377184535523
         - 0.016875133207530871
         - 0.010573042813880874
         - 0.057287160554390794
         - 0.0033471497644706038
         - 0.027379051928784055
         - -0.013848249402830162
         - 0.0030130313604891769
         - -0.0053963359785754901
         - 0.026929159876921144
         - 0.000366362119438176
         - 0.04936388855688692
         - -0.023656499663816406
         - 0.0029147224789577513
         - 0.0012192132632917532
         - 0.020823905716622307
         - -0.013405879658934102
         - 0.029263868362838185
         - -0.010528915394638967
         - 0.021845316542004497
         - -0.027637908767820695
         - 0.013418722453129354
         - 0.071155281096108539
         - -0.014289293259812845
         - 0.018690656840729351
         - -0.025244423807961873
         - -0.043037463232158651
         - -0.021171758191591044
         - 0.0238269951835197
         - 0.006970250530049656
         - 0.017042564383697181
         - -0.032964007470056553
         - -0.023404102714421914
         - 0.018650681682624778
         - -0.043388528442093906
         - -0.00014586519519746517
         - 0.02176551832543655
         - -0.018317910768336467
         - 0.040889994405269713
         - -0.018470838243817355
         - 0.01740544268874783
         - 0.031918614752921633
         - -0.061068762149402885
         - 0.0258592269993832
         - -0.02896637232260749
         - 0.021644483687914308
         - 0.018800500497777144
         - -5.9777990091752976e-05
         - 0.0041174873999653338
         - -0.0068551462216744014
         - -0.0056443967085218899
         - 0.008699366153271465
         - -0.022501670904874437
         - -0.023287182489212944
         - 0.0086970874008347864
         - -0.0018485816675128629
         - -3.3823172917593484e-05
         - -0.019159271585006157
         - -0.0052937511742364709
         - 0.043297328065909392
         - -0.015216112837222186
         - 0.0094666119773299476
         - -0.0068157581078589638
         - -0.020154767129144473
         - -0.017424854507078091
         - 0.053323872967345393
         - 0.0011210256973360098
